digraph Tree {
node [shape=box] ;
0 [label="Glu <= 127.5\nentropy = 0.941\nsamples = 537\nvalue = [345, 192]\nclass = Healthy"] ;
1 [label="BMI <= 26.45\nentropy = 0.71\nsamples = 330\nvalue = [266, 64]\nclass = Healthy"] ;
0 -> 1 [labeldistance=2.5, labelangle=45, headlabel="True"] ;
2 [label="BMI <= 9.1\nentropy = 0.146\nsamples = 96\nvalue = [94, 2]\nclass = Healthy"] ;
1 -> 2 ;
3 [label="Age <= 27.0\nentropy = 0.863\nsamples = 7\nvalue = [5, 2]\nclass = Healthy"] ;
2 -> 3 ;
4 [label="entropy = 0.0\nsamples = 5\nvalue = [5, 0]\nclass = Healthy"] ;
3 -> 4 ;
5 [label="entropy = 0.0\nsamples = 2\nvalue = [0, 2]\nclass = Healthy"] ;
3 -> 5 ;
6 [label="entropy = 0.0\nsamples = 89\nvalue = [89, 0]\nclass = Healthy"] ;
2 -> 6 ;
7 [label="Age <= 28.5\nentropy = 0.834\nsamples = 234\nvalue = [172, 62]\nclass = Healthy"] ;
1 -> 7 ;
8 [label="BMI <= 30.9\nentropy = 0.573\nsamples = 118\nvalue = [102, 16]\nclass = Healthy"] ;
7 -> 8 ;
9 [label="entropy = 0.0\nsamples = 36\nvalue = [36, 0]\nclass = Healthy"] ;
8 -> 9 ;
10 [label="BMI <= 45.4\nentropy = 0.712\nsamples = 82\nvalue = [66, 16]\nclass = Healthy"] ;
8 -> 10 ;
11 [label="SkinThickness <= 5.5\nentropy = 0.645\nsamples = 79\nvalue = [66, 13]\nclass = Healthy"] ;
10 -> 11 ;
12 [label="Glu <= 110.0\nentropy = 0.961\nsamples = 13\nvalue = [8, 5]\nclass = Healthy"] ;
11 -> 12 ;
13 [label="entropy = 0.0\nsamples = 7\nvalue = [7, 0]\nclass = Healthy"] ;
12 -> 13 ;
14 [label="DPF <= 0.799\nentropy = 0.65\nsamples = 6\nvalue = [1, 5]\nclass = Healthy"] ;
12 -> 14 ;
15 [label="entropy = 0.0\nsamples = 5\nvalue = [0, 5]\nclass = Healthy"] ;
14 -> 15 ;
16 [label="entropy = 0.0\nsamples = 1\nvalue = [1, 0]\nclass = Healthy"] ;
14 -> 16 ;
17 [label="DPF <= 0.501\nentropy = 0.533\nsamples = 66\nvalue = [58, 8]\nclass = Healthy"] ;
11 -> 17 ;
18 [label="BMI <= 31.1\nentropy = 0.169\nsamples = 40\nvalue = [39, 1]\nclass = Healthy"] ;
17 -> 18 ;
19 [label="entropy = 0.0\nsamples = 1\nvalue = [0, 1]\nclass = Healthy"] ;
18 -> 19 ;
20 [label="entropy = 0.0\nsamples = 39\nvalue = [39, 0]\nclass = Healthy"] ;
18 -> 20 ;
21 [label="Glu <= 116.0\nentropy = 0.84\nsamples = 26\nvalue = [19, 7]\nclass = Healthy"] ;
17 -> 21 ;
22 [label="BMI <= 32.7\nentropy = 0.949\nsamples = 19\nvalue = [12, 7]\nclass = Healthy"] ;
21 -> 22 ;
23 [label="entropy = 0.0\nsamples = 6\nvalue = [6, 0]\nclass = Healthy"] ;
22 -> 23 ;
24 [label="BP <= 61.0\nentropy = 0.996\nsamples = 13\nvalue = [6, 7]\nclass = Healthy"] ;
22 -> 24 ;
25 [label="entropy = 0.0\nsamples = 3\nvalue = [3, 0]\nclass = Healthy"] ;
24 -> 25 ;
26 [label="BMI <= 34.3\nentropy = 0.881\nsamples = 10\nvalue = [3, 7]\nclass = Healthy"] ;
24 -> 26 ;
27 [label="entropy = 0.0\nsamples = 4\nvalue = [0, 4]\nclass = Healthy"] ;
26 -> 27 ;
28 [label="Glu <= 95.0\nentropy = 1.0\nsamples = 6\nvalue = [3, 3]\nclass = Healthy"] ;
26 -> 28 ;
29 [label="entropy = 0.0\nsamples = 2\nvalue = [0, 2]\nclass = Healthy"] ;
28 -> 29 ;
30 [label="BP <= 63.0\nentropy = 0.811\nsamples = 4\nvalue = [3, 1]\nclass = Healthy"] ;
28 -> 30 ;
31 [label="entropy = 0.0\nsamples = 1\nvalue = [0, 1]\nclass = Healthy"] ;
30 -> 31 ;
32 [label="entropy = 0.0\nsamples = 3\nvalue = [3, 0]\nclass = Healthy"] ;
30 -> 32 ;
33 [label="entropy = 0.0\nsamples = 7\nvalue = [7, 0]\nclass = Healthy"] ;
21 -> 33 ;
34 [label="entropy = 0.0\nsamples = 3\nvalue = [0, 3]\nclass = Healthy"] ;
10 -> 34 ;
35 [label="DPF <= 0.613\nentropy = 0.969\nsamples = 116\nvalue = [70, 46]\nclass = Healthy"] ;
7 -> 35 ;
36 [label="BP <= 83.0\nentropy = 0.884\nsamples = 86\nvalue = [60, 26]\nclass = Healthy"] ;
35 -> 36 ;
37 [label="SkinThickness <= 39.5\nentropy = 0.952\nsamples = 70\nvalue = [44, 26]\nclass = Healthy"] ;
36 -> 37 ;
38 [label="DPF <= 0.421\nentropy = 0.981\nsamples = 62\nvalue = [36, 26]\nclass = Healthy"] ;
37 -> 38 ;
39 [label="DPF <= 0.288\nentropy = 0.997\nsamples = 45\nvalue = [21, 24]\nclass = Healthy"] ;
38 -> 39 ;
40 [label="Glu <= 110.5\nentropy = 0.974\nsamples = 32\nvalue = [19, 13]\nclass = Healthy"] ;
39 -> 40 ;
41 [label="Age <= 36.5\nentropy = 0.672\nsamples = 17\nvalue = [14, 3]\nclass = Healthy"] ;
40 -> 41 ;
42 [label="preg <= 5.0\nentropy = 0.985\nsamples = 7\nvalue = [4, 3]\nclass = Healthy"] ;
41 -> 42 ;
43 [label="BP <= 66.0\nentropy = 0.722\nsamples = 5\nvalue = [4, 1]\nclass = Healthy"] ;
42 -> 43 ;
44 [label="SkinThickness <= 9.5\nentropy = 1.0\nsamples = 2\nvalue = [1, 1]\nclass = Healthy"] ;
43 -> 44 ;
45 [label="entropy = 0.0\nsamples = 1\nvalue = [0, 1]\nclass = Healthy"] ;
44 -> 45 ;
46 [label="entropy = 0.0\nsamples = 1\nvalue = [1, 0]\nclass = Healthy"] ;
44 -> 46 ;
47 [label="entropy = 0.0\nsamples = 3\nvalue = [3, 0]\nclass = Healthy"] ;
43 -> 47 ;
48 [label="entropy = 0.0\nsamples = 2\nvalue = [0, 2]\nclass = Healthy"] ;
42 -> 48 ;
49 [label="entropy = 0.0\nsamples = 10\nvalue = [10, 0]\nclass = Healthy"] ;
41 -> 49 ;
50 [label="Glu <= 119.5\nentropy = 0.918\nsamples = 15\nvalue = [5, 10]\nclass = Healthy"] ;
40 -> 50 ;
51 [label="entropy = 0.0\nsamples = 6\nvalue = [0, 6]\nclass = Healthy"] ;
50 -> 51 ;
52 [label="Age <= 34.5\nentropy = 0.991\nsamples = 9\nvalue = [5, 4]\nclass = Healthy"] ;
50 -> 52 ;
53 [label="entropy = 0.0\nsamples = 3\nvalue = [3, 0]\nclass = Healthy"] ;
52 -> 53 ;
54 [label="DPF <= 0.242\nentropy = 0.918\nsamples = 6\nvalue = [2, 4]\nclass = Healthy"] ;
52 -> 54 ;
55 [label="entropy = 0.0\nsamples = 4\nvalue = [0, 4]\nclass = Healthy"] ;
54 -> 55 ;
56 [label="entropy = 0.0\nsamples = 2\nvalue = [2, 0]\nclass = Healthy"] ;
54 -> 56 ;
57 [label="DPF <= 0.385\nentropy = 0.619\nsamples = 13\nvalue = [2, 11]\nclass = Healthy"] ;
39 -> 57 ;
58 [label="entropy = 0.0\nsamples = 10\nvalue = [0, 10]\nclass = Healthy"] ;
57 -> 58 ;
59 [label="DPF <= 0.403\nentropy = 0.918\nsamples = 3\nvalue = [2, 1]\nclass = Healthy"] ;
57 -> 59 ;
60 [label="entropy = 0.0\nsamples = 2\nvalue = [2, 0]\nclass = Healthy"] ;
59 -> 60 ;
61 [label="entropy = 0.0\nsamples = 1\nvalue = [0, 1]\nclass = Healthy"] ;
59 -> 61 ;
62 [label="preg <= 11.5\nentropy = 0.523\nsamples = 17\nvalue = [15, 2]\nclass = Healthy"] ;
38 -> 62 ;
63 [label="preg <= 2.0\nentropy = 0.337\nsamples = 16\nvalue = [15, 1]\nclass = Healthy"] ;
62 -> 63 ;
64 [label="BP <= 68.0\nentropy = 1.0\nsamples = 2\nvalue = [1, 1]\nclass = Healthy"] ;
63 -> 64 ;
65 [label="entropy = 0.0\nsamples = 1\nvalue = [1, 0]\nclass = Healthy"] ;
64 -> 65 ;
66 [label="entropy = 0.0\nsamples = 1\nvalue = [0, 1]\nclass = Healthy"] ;
64 -> 66 ;
67 [label="entropy = 0.0\nsamples = 14\nvalue = [14, 0]\nclass = Healthy"] ;
63 -> 67 ;
68 [label="entropy = 0.0\nsamples = 1\nvalue = [0, 1]\nclass = Healthy"] ;
62 -> 68 ;
69 [label="entropy = 0.0\nsamples = 8\nvalue = [8, 0]\nclass = Healthy"] ;
37 -> 69 ;
70 [label="entropy = 0.0\nsamples = 16\nvalue = [16, 0]\nclass = Healthy"] ;
36 -> 70 ;
71 [label="preg <= 7.5\nentropy = 0.918\nsamples = 30\nvalue = [10, 20]\nclass = Healthy"] ;
35 -> 71 ;
72 [label="Insulin <= 120.5\nentropy = 1.0\nsamples = 20\nvalue = [10, 10]\nclass = Healthy"] ;
71 -> 72 ;
73 [label="Insulin <= 28.5\nentropy = 0.811\nsamples = 12\nvalue = [9, 3]\nclass = Healthy"] ;
72 -> 73 ;
74 [label="preg <= 4.5\nentropy = 1.0\nsamples = 6\nvalue = [3, 3]\nclass = Healthy"] ;
73 -> 74 ;
75 [label="SkinThickness <= 25.0\nentropy = 0.811\nsamples = 4\nvalue = [3, 1]\nclass = Healthy"] ;
74 -> 75 ;
76 [label="entropy = 0.0\nsamples = 3\nvalue = [3, 0]\nclass = Healthy"] ;
75 -> 76 ;
77 [label="entropy = 0.0\nsamples = 1\nvalue = [0, 1]\nclass = Healthy"] ;
75 -> 77 ;
78 [label="entropy = 0.0\nsamples = 2\nvalue = [0, 2]\nclass = Healthy"] ;
74 -> 78 ;
79 [label="entropy = 0.0\nsamples = 6\nvalue = [6, 0]\nclass = Healthy"] ;
73 -> 79 ;
80 [label="SkinThickness <= 47.5\nentropy = 0.544\nsamples = 8\nvalue = [1, 7]\nclass = Healthy"] ;
72 -> 80 ;
81 [label="entropy = 0.0\nsamples = 7\nvalue = [0, 7]\nclass = Healthy"] ;
80 -> 81 ;
82 [label="entropy = 0.0\nsamples = 1\nvalue = [1, 0]\nclass = Healthy"] ;
80 -> 82 ;
83 [label="entropy = 0.0\nsamples = 10\nvalue = [0, 10]\nclass = Healthy"] ;
71 -> 83 ;
84 [label="Glu <= 165.5\nentropy = 0.959\nsamples = 207\nvalue = [79, 128]\nclass = Healthy"] ;
0 -> 84 [labeldistance=2.5, labelangle=-45, headlabel="False"] ;
85 [label="BMI <= 27.85\nentropy = 0.999\nsamples = 149\nvalue = [72, 77]\nclass = Healthy"] ;
84 -> 85 ;
86 [label="preg <= 1.5\nentropy = 0.776\nsamples = 35\nvalue = [27, 8]\nclass = Healthy"] ;
85 -> 86 ;
87 [label="entropy = 0.0\nsamples = 10\nvalue = [10, 0]\nclass = Healthy"] ;
86 -> 87 ;
88 [label="BMI <= 23.45\nentropy = 0.904\nsamples = 25\nvalue = [17, 8]\nclass = Healthy"] ;
86 -> 88 ;
89 [label="entropy = 0.0\nsamples = 6\nvalue = [6, 0]\nclass = Healthy"] ;
88 -> 89 ;
90 [label="Glu <= 144.0\nentropy = 0.982\nsamples = 19\nvalue = [11, 8]\nclass = Healthy"] ;
88 -> 90 ;
91 [label="BP <= 73.0\nentropy = 0.811\nsamples = 12\nvalue = [9, 3]\nclass = Healthy"] ;
90 -> 91 ;
92 [label="DPF <= 0.465\nentropy = 1.0\nsamples = 6\nvalue = [3, 3]\nclass = Healthy"] ;
91 -> 92 ;
93 [label="DPF <= 0.185\nentropy = 0.811\nsamples = 4\nvalue = [1, 3]\nclass = Healthy"] ;
92 -> 93 ;
94 [label="entropy = 0.0\nsamples = 1\nvalue = [1, 0]\nclass = Healthy"] ;
93 -> 94 ;
95 [label="entropy = 0.0\nsamples = 3\nvalue = [0, 3]\nclass = Healthy"] ;
93 -> 95 ;
96 [label="entropy = 0.0\nsamples = 2\nvalue = [2, 0]\nclass = Healthy"] ;
92 -> 96 ;
97 [label="entropy = 0.0\nsamples = 6\nvalue = [6, 0]\nclass = Healthy"] ;
91 -> 97 ;
98 [label="BMI <= 27.1\nentropy = 0.863\nsamples = 7\nvalue = [2, 5]\nclass = Healthy"] ;
90 -> 98 ;
99 [label="entropy = 0.0\nsamples = 4\nvalue = [0, 4]\nclass = Healthy"] ;
98 -> 99 ;
100 [label="preg <= 4.5\nentropy = 0.918\nsamples = 3\nvalue = [2, 1]\nclass = Healthy"] ;
98 -> 100 ;
101 [label="entropy = 0.0\nsamples = 1\nvalue = [0, 1]\nclass = Healthy"] ;
100 -> 101 ;
102 [label="entropy = 0.0\nsamples = 2\nvalue = [2, 0]\nclass = Healthy"] ;
100 -> 102 ;
103 [label="preg <= 7.5\nentropy = 0.968\nsamples = 114\nvalue = [45, 69]\nclass = Healthy"] ;
85 -> 103 ;
104 [label="DPF <= 0.739\nentropy = 0.998\nsamples = 89\nvalue = [42, 47]\nclass = Healthy"] ;
103 -> 104 ;
105 [label="Insulin <= 137.5\nentropy = 0.995\nsamples = 72\nvalue = [39, 33]\nclass = Healthy"] ;
104 -> 105 ;
106 [label="BMI <= 43.0\nentropy = 0.985\nsamples = 42\nvalue = [18, 24]\nclass = Healthy"] ;
105 -> 106 ;
107 [label="preg <= 5.5\nentropy = 0.999\nsamples = 35\nvalue = [18, 17]\nclass = Healthy"] ;
106 -> 107 ;
108 [label="BP <= 87.5\nentropy = 0.961\nsamples = 26\nvalue = [16, 10]\nclass = Healthy"] ;
107 -> 108 ;
109 [label="Glu <= 146.5\nentropy = 0.887\nsamples = 23\nvalue = [16, 7]\nclass = Healthy"] ;
108 -> 109 ;
110 [label="BP <= 79.0\nentropy = 0.977\nsamples = 17\nvalue = [10, 7]\nclass = Healthy"] ;
109 -> 110 ;
111 [label="BP <= 57.0\nentropy = 0.863\nsamples = 7\nvalue = [2, 5]\nclass = Healthy"] ;
110 -> 111 ;
112 [label="DPF <= 0.254\nentropy = 0.918\nsamples = 3\nvalue = [2, 1]\nclass = Healthy"] ;
111 -> 112 ;
113 [label="entropy = 0.0\nsamples = 1\nvalue = [0, 1]\nclass = Healthy"] ;
112 -> 113 ;
114 [label="entropy = 0.0\nsamples = 2\nvalue = [2, 0]\nclass = Healthy"] ;
112 -> 114 ;
115 [label="entropy = 0.0\nsamples = 4\nvalue = [0, 4]\nclass = Healthy"] ;
111 -> 115 ;
116 [label="Age <= 33.5\nentropy = 0.722\nsamples = 10\nvalue = [8, 2]\nclass = Healthy"] ;
110 -> 116 ;
117 [label="entropy = 0.0\nsamples = 6\nvalue = [6, 0]\nclass = Healthy"] ;
116 -> 117 ;
118 [label="DPF <= 0.301\nentropy = 1.0\nsamples = 4\nvalue = [2, 2]\nclass = Healthy"] ;
116 -> 118 ;
119 [label="entropy = 0.0\nsamples = 2\nvalue = [2, 0]\nclass = Healthy"] ;
118 -> 119 ;
120 [label="entropy = 0.0\nsamples = 2\nvalue = [0, 2]\nclass = Healthy"] ;
118 -> 120 ;
121 [label="entropy = 0.0\nsamples = 6\nvalue = [6, 0]\nclass = Healthy"] ;
109 -> 121 ;
122 [label="entropy = 0.0\nsamples = 3\nvalue = [0, 3]\nclass = Healthy"] ;
108 -> 122 ;
123 [label="Age <= 41.0\nentropy = 0.764\nsamples = 9\nvalue = [2, 7]\nclass = Healthy"] ;
107 -> 123 ;
124 [label="BP <= 77.0\nentropy = 0.918\nsamples = 3\nvalue = [2, 1]\nclass = Healthy"] ;
123 -> 124 ;
125 [label="entropy = 0.0\nsamples = 1\nvalue = [0, 1]\nclass = Healthy"] ;
124 -> 125 ;
126 [label="entropy = 0.0\nsamples = 2\nvalue = [2, 0]\nclass = Healthy"] ;
124 -> 126 ;
127 [label="entropy = 0.0\nsamples = 6\nvalue = [0, 6]\nclass = Healthy"] ;
123 -> 127 ;
128 [label="entropy = 0.0\nsamples = 7\nvalue = [0, 7]\nclass = Healthy"] ;
106 -> 128 ;
129 [label="BP <= 57.0\nentropy = 0.881\nsamples = 30\nvalue = [21, 9]\nclass = Healthy"] ;
105 -> 129 ;
130 [label="entropy = 0.0\nsamples = 3\nvalue = [0, 3]\nclass = Healthy"] ;
129 -> 130 ;
131 [label="BMI <= 32.2\nentropy = 0.764\nsamples = 27\nvalue = [21, 6]\nclass = Healthy"] ;
129 -> 131 ;
132 [label="BP <= 67.0\nentropy = 1.0\nsamples = 8\nvalue = [4, 4]\nclass = Healthy"] ;
131 -> 132 ;
133 [label="entropy = 0.0\nsamples = 4\nvalue = [4, 0]\nclass = Healthy"] ;
132 -> 133 ;
134 [label="entropy = 0.0\nsamples = 4\nvalue = [0, 4]\nclass = Healthy"] ;
132 -> 134 ;
135 [label="BMI <= 39.05\nentropy = 0.485\nsamples = 19\nvalue = [17, 2]\nclass = Healthy"] ;
131 -> 135 ;
136 [label="entropy = 0.0\nsamples = 10\nvalue = [10, 0]\nclass = Healthy"] ;
135 -> 136 ;
137 [label="Insulin <= 252.5\nentropy = 0.764\nsamples = 9\nvalue = [7, 2]\nclass = Healthy"] ;
135 -> 137 ;
138 [label="Insulin <= 177.5\nentropy = 1.0\nsamples = 4\nvalue = [2, 2]\nclass = Healthy"] ;
137 -> 138 ;
139 [label="entropy = 0.0\nsamples = 2\nvalue = [2, 0]\nclass = Healthy"] ;
138 -> 139 ;
140 [label="entropy = 0.0\nsamples = 2\nvalue = [0, 2]\nclass = Healthy"] ;
138 -> 140 ;
141 [label="entropy = 0.0\nsamples = 5\nvalue = [5, 0]\nclass = Healthy"] ;
137 -> 141 ;
142 [label="Insulin <= 277.5\nentropy = 0.672\nsamples = 17\nvalue = [3, 14]\nclass = Healthy"] ;
104 -> 142 ;
143 [label="Age <= 40.5\nentropy = 0.353\nsamples = 15\nvalue = [1, 14]\nclass = Healthy"] ;
142 -> 143 ;
144 [label="entropy = 0.0\nsamples = 13\nvalue = [0, 13]\nclass = Healthy"] ;
143 -> 144 ;
145 [label="DPF <= 1.293\nentropy = 1.0\nsamples = 2\nvalue = [1, 1]\nclass = Healthy"] ;
143 -> 145 ;
146 [label="entropy = 0.0\nsamples = 1\nvalue = [0, 1]\nclass = Healthy"] ;
145 -> 146 ;
147 [label="entropy = 0.0\nsamples = 1\nvalue = [1, 0]\nclass = Healthy"] ;
145 -> 147 ;
148 [label="entropy = 0.0\nsamples = 2\nvalue = [2, 0]\nclass = Healthy"] ;
142 -> 148 ;
149 [label="DPF <= 0.431\nentropy = 0.529\nsamples = 25\nvalue = [3, 22]\nclass = Healthy"] ;
103 -> 149 ;
150 [label="BP <= 81.0\nentropy = 0.918\nsamples = 9\nvalue = [3, 6]\nclass = Healthy"] ;
149 -> 150 ;
151 [label="BP <= 74.0\nentropy = 1.0\nsamples = 6\nvalue = [3, 3]\nclass = Healthy"] ;
150 -> 151 ;
152 [label="entropy = 0.0\nsamples = 2\nvalue = [0, 2]\nclass = Healthy"] ;
151 -> 152 ;
153 [label="Glu <= 159.0\nentropy = 0.811\nsamples = 4\nvalue = [3, 1]\nclass = Healthy"] ;
151 -> 153 ;
154 [label="entropy = 0.0\nsamples = 3\nvalue = [3, 0]\nclass = Healthy"] ;
153 -> 154 ;
155 [label="entropy = 0.0\nsamples = 1\nvalue = [0, 1]\nclass = Healthy"] ;
153 -> 155 ;
156 [label="entropy = 0.0\nsamples = 3\nvalue = [0, 3]\nclass = Healthy"] ;
150 -> 156 ;
157 [label="entropy = 0.0\nsamples = 16\nvalue = [0, 16]\nclass = Healthy"] ;
149 -> 157 ;
158 [label="Age <= 30.5\nentropy = 0.531\nsamples = 58\nvalue = [7, 51]\nclass = Healthy"] ;
84 -> 158 ;
159 [label="entropy = 0.0\nsamples = 18\nvalue = [0, 18]\nclass = Healthy"] ;
158 -> 159 ;
160 [label="DPF <= 1.337\nentropy = 0.669\nsamples = 40\nvalue = [7, 33]\nclass = Healthy"] ;
158 -> 160 ;
161 [label="Glu <= 188.5\nentropy = 0.562\nsamples = 38\nvalue = [5, 33]\nclass = Healthy"] ;
160 -> 161 ;
162 [label="DPF <= 1.157\nentropy = 0.353\nsamples = 30\nvalue = [2, 28]\nclass = Healthy"] ;
161 -> 162 ;
163 [label="preg <= 9.5\nentropy = 0.222\nsamples = 28\nvalue = [1, 27]\nclass = Healthy"] ;
162 -> 163 ;
164 [label="entropy = 0.0\nsamples = 26\nvalue = [0, 26]\nclass = Healthy"] ;
163 -> 164 ;
165 [label="DPF <= 0.369\nentropy = 1.0\nsamples = 2\nvalue = [1, 1]\nclass = Healthy"] ;
163 -> 165 ;
166 [label="entropy = 0.0\nsamples = 1\nvalue = [1, 0]\nclass = Healthy"] ;
165 -> 166 ;
167 [label="entropy = 0.0\nsamples = 1\nvalue = [0, 1]\nclass = Healthy"] ;
165 -> 167 ;
168 [label="preg <= 4.5\nentropy = 1.0\nsamples = 2\nvalue = [1, 1]\nclass = Healthy"] ;
162 -> 168 ;
169 [label="entropy = 0.0\nsamples = 1\nvalue = [1, 0]\nclass = Healthy"] ;
168 -> 169 ;
170 [label="entropy = 0.0\nsamples = 1\nvalue = [0, 1]\nclass = Healthy"] ;
168 -> 170 ;
171 [label="DPF <= 0.288\nentropy = 0.954\nsamples = 8\nvalue = [3, 5]\nclass = Healthy"] ;
161 -> 171 ;
172 [label="entropy = 0.0\nsamples = 4\nvalue = [0, 4]\nclass = Healthy"] ;
171 -> 172 ;
173 [label="BMI <= 26.0\nentropy = 0.811\nsamples = 4\nvalue = [3, 1]\nclass = Healthy"] ;
171 -> 173 ;
174 [label="entropy = 0.0\nsamples = 1\nvalue = [0, 1]\nclass = Healthy"] ;
173 -> 174 ;
175 [label="entropy = 0.0\nsamples = 3\nvalue = [3, 0]\nclass = Healthy"] ;
173 -> 175 ;
176 [label="entropy = 0.0\nsamples = 2\nvalue = [2, 0]\nclass = Healthy"] ;
160 -> 176 ;
}